<?xml version="1.0"?>
<opencv_storage>
<cascade>
  <stageType>BOOST</stageType>
  <featureType>LBP</featureType>
  <height>24</height>
  <width>24</width>
  <stageParams>
    <boostType>GAB</boostType>
    <minHitRate>9.9500000476837158e-01</minHitRate>
    <maxFalseAlarm>5.0000000000000000e-01</maxFalseAlarm>
    <weightTrimRate>9.4999999999999996e-01</weightTrimRate>
    <maxDepth>1</maxDepth>
    <maxWeakCount>100</maxWeakCount></stageParams>
  <featureParams>
    <maxCatCount>256</maxCatCount>
    <featSize>1</featSize></featureParams>
  <stageNum>14</stageNum>
  <stages>
    <!-- stage 0 -->
    <_>
      <maxWeakCount>3</maxWeakCount>
      <stageThreshold>-1.0044124126434326e+00</stageThreshold>
      <weakClassifiers>
        <_>
          <internalNodes>
            0 -1 11 -21569 -2126849 -1819041653 -67171617 -4472901
            -3425861 -1150571589 -17413</internalNodes>
          <leafValues>
            -8.7509441375732422e-01 8.6292523145675659e-01</leafValues></_>
        <_>
          <internalNodes>
            0 -1 26 -2097153 -2106883 -4128820 -6301238 -72614913 -593
            -3298418 -1053746</internalNodes>
          <leafValues>
            -8.5107612609863281e-01 8.1378400325775146e-01</leafValues></_>
        <_>
          <internalNodes>
            0 -1 62 -792658194 -715532321 -602867201 -134217761
            -207619089 -68685093 -106168321 -1</internalNodes>
          <leafValues>
            -8.5064280033111572e-01 7.2175806760787964e-01</leafValues></_></weakClassifiers></_>
    <!-- stage 1 -->
    <_>
      <maxWeakCount>3</maxWeakCount>
      <stageThreshold>-1.0576854944229126e+00</stageThreshold>
      <weakClassifiers>
        <_>
          <internalNodes>
            0 -1 18 -1 -1145046085 -140640257 868217755 -7341057
            -1145312289 -2097153 1002438591</internalNodes>
          <leafValues>
            -8.8725215196609497e-01 7.0098477602005005e-01</leafValues></_>
        <_>
          <internalNodes>
            0 -1 25 -2097201 -10498049 -103555126 -69221746 -69469217
            -75507025 -1042 -1053014</internalNodes>
          <leafValues>
            -8.2237273454666138e-01 6.2677013874053955e-01</leafValues></_>
        <_>
          <internalNodes>
            0 -1 28 -21569 -12211249 -1882519017 -2379777 -2113601
            -1080509473 -1105221 -21505</internalNodes>
          <leafValues>
            -7.9720348119735718e-01 6.5360981225967407e-01</leafValues></_></weakClassifiers></_>
    <!-- stage 2 -->
    <_>
      <maxWeakCount>3</maxWeakCount>
      <stageThreshold>-9.4767755270004272e-01</stageThreshold>
      <weakClassifiers>
        <_>
          <internalNodes>
            0 -1 6 -145359424 -3077 -41954057 -134226977 -181011473
            -2104373 -70255105 -1</internalNodes>
          <leafValues>
            -8.1162542104721069e-01 7.0434373617172241e-01</leafValues></_>
        <_>
          <internalNodes>
            0 -1 48 1610572767 -142878787 -71173123 -41298019 6226175
            -69502241 -201327617 -1</internalNodes>
          <leafValues>
            -7.6694691181182861e-01 6.6283810138702393e-01</leafValues></_>
        <_>
          <internalNodes>
            0 -1 36 -1 -3585 -730082305 -2363137 -73139297 -69223509
            -7210065 -2002063621</internalNodes>
          <leafValues>
            -7.0432102680206299e-01 6.3089478015899658e-01</leafValues></_></weakClassifiers></_>
    <!-- stage 3 -->
    <_>
      <maxWeakCount>3</maxWeakCount>
      <stageThreshold>-7.8978633880615234e-01</stageThreshold>
      <weakClassifiers>
        <_>
          <internalNodes>
            0 -1 45 -1 -1 -1 -1 -48129 -1 2004828671 -33793</internalNodes>
          <leafValues>
            -6.4978903532028198e-01 7.4276524782180786e-01</leafValues></_>
        <_>
          <internalNodes>
            0 -1 13 -42600971 -178981628 -548677765 -170535459 -79708161
            -174592001 -1297354581 -134217729</internalNodes>
          <leafValues>
            -7.0469510555267334e-01 6.6096717119216919e-01</leafValues></_>
        <_>
          <internalNodes>
            0 -1 59 -1033 -5 -67112963 -134217731 -542508291 -262178
            -812417800 -232076</internalNodes>
          <leafValues>
            -6.6784512996673584e-01 5.6469786167144775e-01</leafValues></_></weakClassifiers></_>
    <!-- stage 4 -->
    <_>
      <maxWeakCount>5</maxWeakCount>
      <stageThreshold>-1.3066555261611938e+00</stageThreshold>
      <weakClassifiers>
        <_>
          <internalNodes>
            0 -1 41 -4438 -136323169 -924988798 -35655197 -36832257
            -25038357 -68420625 -1050625</internalNodes>
          <leafValues>
            -7.1977281570434570e-01 6.1869335174560547e-01</leafValues></_>
        <_>
          <internalNodes>
            0 -1 12 -572543041 -170794763 970949307 -537549825 -44519489
            -543892028 -33834053 -17409</internalNodes>
          <leafValues>
            -7.1470230817794800e-01 5.3777754306793213e-01</leafValues></_>
        <_>
          <internalNodes>
            0 -1 47 -3073 -800771 -342239321 -572523521 -624033857
            -537921089 -788639 -538979067</internalNodes>
          <leafValues>
            -6.8823480606079102e-01 4.9770355224609375e-01</leafValues></_>
        <_>
          <internalNodes>
            0 -1 1 -146735164 -146482227 -1713680186 -33556997
            -111869953 -73015573 -283906305 -262145</internalNodes>
          <leafValues>
            -7.9820191860198975e-01 4.3814069032669067e-01</leafValues></_>
        <_>
          <internalNodes>
            0 -1 63 -17367356 -1072375224 -263736321 -246558245 -264306
            -73428854 -605291813 -67108881</internalNodes>
          <leafValues>
            -8.0802470445632935e-01 3.8131242990493774e-01</leafValues></_></weakClassifiers></_>
    <!-- stage 5 -->
    <_>
      <maxWeakCount>5</maxWeakCount>
      <stageThreshold>-1.0024765729904175e+00</stageThreshold>
      <weakClassifiers>
        <_>
          <internalNodes>
            0 -1 31 -1 -2097153 -41 -587204617 -1 -7297 -76283905
            -352325889</internalNodes>
          <leafValues>
            -5.8108723163604736e-01 7.0276242494583130e-01</leafValues></_>
        <_>
          <internalNodes>
            0 -1 44 -52625409 -14695429 -2109513921 -141622781
            -1073684236 -134612085 -256775169 -1025</internalNodes>
          <leafValues>
            -6.2582242488861084e-01 5.8156830072402954e-01</leafValues></_>
        <_>
          <internalNodes>
            0 -1 2 -33 -286598402 -580715562 -824016918 -86249473
            -34879233 -85492492 -16777232</internalNodes>
          <leafValues>
            -6.5955764055252075e-01 4.6390795707702637e-01</leafValues></_>
        <_>
          <internalNodes>
            0 -1 7 593308167 -136970785 567748639 -2255617 -40112449
            -1092976440 -302186561 -30465</internalNodes>
          <leafValues>
            -7.8419417142868042e-01 3.7347528338432312e-01</leafValues></_>
        <_>
          <internalNodes>
            0 -1 58 -8193 -240127521 -979398241 -203975201 -607590401
            -218900241 -885130259 -539011755</internalNodes>
          <leafValues>
            -5.7079732418060303e-01 5.2471935749053955e-01</leafValues></_></weakClassifiers></_>
    <!-- stage 6 -->
    <_>
      <maxWeakCount>5</maxWeakCount>
      <stageThreshold>-9.4592273235321045e-01</stageThreshold>
      <weakClassifiers>
        <_>
          <internalNodes>
            0 -1 20 -1 859306803 -8388609 -1 -5 -1073743873 -1 -1</internalNodes>
          <leafValues>
            -5.5525726079940796e-01 7.0351475477218628e-01</leafValues></_>
        <_>
          <internalNodes>
            0 -1 39 -1 -527585 -371982369 -3233 -272505857 -84149293
            -98633025 -385946881</internalNodes>
          <leafValues>
            -5.7119458913803101e-01 6.2437999248504639e-01</leafValues></_>
        <_>
          <internalNodes>
            0 -1 50 -16783761 -12323353 -321917185 -576731557 1165443407
            1615588002 1677455359 -143658533</internalNodes>
          <leafValues>
            -5.8025532960891724e-01 5.2991473674774170e-01</leafValues></_>
        <_>
          <internalNodes>
            0 -1 66 -301797632 -325124233 -409994553 -3418217 -54789389
            -372508021 -711984177 -1048577</internalNodes>
          <leafValues>
            -7.6408845186233521e-01 3.9371687173843384e-01</leafValues></_>
        <_>
          <internalNodes>
            0 -1 8 -8388609 -24208434 2124274918 -386999570 -1123329
            -1090792710 1626198260 -553648414</internalNodes>
          <leafValues>
            -6.1152184009552002e-01 4.1470286250114441e-01</leafValues></_></weakClassifiers></_>
    <!-- stage 7 -->
    <_>
      <maxWeakCount>5</maxWeakCount>
      <stageThreshold>-9.0336233377456665e-01</stageThreshold>
      <weakClassifiers>
        <_>
          <internalNodes>
            0 -1 27 -137101827 -720268971 -553341043 -178418193
            -124518913 -55854627 -15881558 -2117713</internalNodes>
          <leafValues>
            -5.9623217582702637e-01 5.7542997598648071e-01</leafValues></_>
        <_>
          <internalNodes>
            0 -1 21 -641731661 322171171 -662047265 -169882237
            -223348229 -1144276276 1082192335 -3421281</internalNodes>
          <leafValues>
            -5.4481285810470581e-01 5.4015100002288818e-01</leafValues></_>
        <_>
          <internalNodes>
            0 -1 30 -262145 -1074379009 -137389601 1067252221 -341837317
            -262659 -6291457 -1430733832</internalNodes>
          <leafValues>
            -5.9532976150512695e-01 4.6621206402778625e-01</leafValues></_>
        <_>
          <internalNodes>
            0 -1 61 -665780482 -733875497 -1194752501 -648417109
            -76547329 -10780149 -214970401 -67114805</internalNodes>
          <leafValues>
            -7.4444782733917236e-01 3.8642489910125732e-01</leafValues></_>
        <_>
          <internalNodes>
            0 -1 17 1498930911 -548975697 219732473 -8451085 1191661007
            1330578055 1866756095 2138523207</internalNodes>
          <leafValues>
            -5.2844268083572388e-01 5.1591843366622925e-01</leafValues></_></weakClassifiers></_>
    <!-- stage 8 -->
    <_>
      <maxWeakCount>6</maxWeakCount>
      <stageThreshold>-1.1681543588638306e+00</stageThreshold>
      <weakClassifiers>
        <_>
          <internalNodes>
            0 -1 54 -1 -1 -1 -1 -8388609 -149 -1 -2253</internalNodes>
          <leafValues>
            -4.7890818119049072e-01 7.3244780302047729e-01</leafValues></_>
        <_>
          <internalNodes>
            0 -1 68 -536871937 -2857 -552083490 -232849414 -268698812
            -269562949 -222299584 -17105202</internalNodes>
          <leafValues>
            -5.9566760063171387e-01 4.7871366143226624e-01</leafValues></_>
        <_>
          <internalNodes>
            0 -1 49 -71571457 -104081189 -697045253 -79580031 574046975
            -67292790 -526516225 -7472437</internalNodes>
          <leafValues>
            -5.3228622674942017e-01 5.2189064025878906e-01</leafValues></_>
        <_>
          <internalNodes>
            0 -1 23 -176818189 -235864073 2004219895 -705169409
            -134219789 -172623873 -671746049 -134744065</internalNodes>
          <leafValues>
            -4.5927298069000244e-01 5.7151663303375244e-01</leafValues></_>
        <_>
          <internalNodes>
            0 -1 32 1992071007 997752188 -315663361 1052269438 -48899077
            -79697778 -1639425 -1442119681</internalNodes>
          <leafValues>
            -6.0359877347946167e-01 4.1179332137107849e-01</leafValues></_>
        <_>
          <internalNodes>
            0 -1 57 -987769355 285558017 -641597443 501053215 279966387
            153589909 444509087 143516079</internalNodes>
          <leafValues>
            -5.4413038492202759e-01 4.7078984975814819e-01</leafValues></_></weakClassifiers></_>
    <!-- stage 9 -->
    <_>
      <maxWeakCount>6</maxWeakCount>
      <stageThreshold>-1.5051701068878174e+00</stageThreshold>
      <weakClassifiers>
        <_>
          <internalNodes>
            0 -1 37 -715129857 -782512041 -1785605681 -201461265
            -107348993 -71585287 -105122898 -50</internalNodes>
          <leafValues>
            -5.8395862579345703e-01 5.4609245061874390e-01</leafValues></_>
        <_>
          <internalNodes>
            0 -1 11 -12210241 -788473891 -716724037 -641094691
            -767509109 -738147456 -641679425 -3163681</internalNodes>
          <leafValues>
            -7.2758847475051880e-01 3.6762934923171997e-01</leafValues></_>
        <_>
          <internalNodes>
            0 -1 64 -49291390 119727360 -150761168 50591795 -1365508470
            -2009883989 -482614366 -1431569477</internalNodes>
          <leafValues>
            -6.3722908496856689e-01 3.8396504521369934e-01</leafValues></_>
        <_>
          <internalNodes>
            0 -1 46 -44043265 -1853253173 -754362917 -1920347705
            -74715457 -1987247479 -1886459733 134868877</internalNodes>
          <leafValues>
            -5.0204670429229736e-01 4.8425155878067017e-01</leafValues></_>
        <_>
          <internalNodes>
            0 -1 52 -285216985 1827655679 -319394806 -894632209
            -138414329 -142739595 -211292411 -176955393</internalNodes>
          <leafValues>
            -4.6302014589309692e-01 5.2673709392547607e-01</leafValues></_>
        <_>
          <internalNodes>
            0 -1 65 680148377 -138502275 -1247166467 -41992705 445509628
            -1078220134 -1275224580 150735016</internalNodes>
          <leafValues>
            -7.5040119886398315e-01 2.7862197160720825e-01</leafValues></_></weakClassifiers></_>
    <!-- stage 10 -->
    <_>
      <maxWeakCount>7</maxWeakCount>
      <stageThreshold>-1.7283198833465576e+00</stageThreshold>
      <weakClassifiers>
        <_>
          <internalNodes>
            0 -1 34 -81 19133191 -238158849 2013263327 1032448175
            1654624911 -2096375091 -134226993</internalNodes>
          <leafValues>
            -5.7034629583358765e-01 4.9000465869903564e-01</leafValues></_>
        <_>
          <internalNodes>
            0 -1 0 -932512416 -1025511413 -721169065 -607686505
            -161096944 -7108526 -77596465 -1025</internalNodes>
          <leafValues>
            -7.5826025009155273e-01 3.0452620983123779e-01</leafValues></_>
        <_>
          <internalNodes>
            0 -1 38 -145500299 -111701677 330256893 -4206145 -607147587
            -99897665 766116080 -158476</internalNodes>
          <leafValues>
            -5.9305280447006226e-01 3.9801791310310364e-01</leafValues></_>
        <_>
          <internalNodes>
            0 -1 56 -227027969 -1181614857 -577512993 268405503
            -1147151107 291813473 -881162036 207587551</internalNodes>
          <leafValues>
            -5.3476679325103760e-01 4.3797338008880615e-01</leafValues></_>
        <_>
          <internalNodes>
            0 -1 71 -262155 -1174618092 1636554101 -906215100 -542376587
            -1456232303 -1361058475 -274732203</internalNodes>
          <leafValues>
            -5.0521135330200195e-01 4.2677596211433411e-01</leafValues></_>
        <_>
          <internalNodes>
            0 -1 33 -10485761 -536870913 -967522752 -1000550401 -4129
            -536870913 -539504865 -538982577</internalNodes>
          <leafValues>
            -4.1188111901283264e-01 5.3700846433639526e-01</leafValues></_>
        <_>
          <internalNodes>
            0 -1 9 -218708786 -51646234 1750266586 -256871374 1076609092
            -339524793 -657597697 -25430017</internalNodes>
          <leafValues>
            -4.7793868184089661e-01 4.6133044362068176e-01</leafValues></_></weakClassifiers></_>
    <!-- stage 11 -->
    <_>
      <maxWeakCount>7</maxWeakCount>
      <stageThreshold>-1.0329858064651489e+00</stageThreshold>
      <weakClassifiers>
        <_>
          <internalNodes>
            0 -1 14 -1537 -7721 1364328413 -552233012 -503578701
            -1783398221 -17 -4466</internalNodes>
          <leafValues>
            -4.6015179157257080e-01 5.1295608282089233e-01</leafValues></_>
        <_>
          <internalNodes>
            0 -1 22 -248384256 -637670933 -570339071 -36714821
            -1188174929 -71314801 -1553346429 -1070421</internalNodes>
          <leafValues>
            -6.8878924846649170e-01 3.4238171577453613e-01</leafValues></_>
        <_>
          <internalNodes>
            0 -1 51 -486545681 -612039231 -1332686827 -1189767151
            1087324411 -272737335 -259862785 -70526017</internalNodes>
          <leafValues>
            -5.6016349792480469e-01 3.9719709753990173e-01</leafValues></_>
        <_>
          <internalNodes>
            0 -1 69 -2367489 -778583649 -766076966 -220007430 -875302540
            -23072370 -856952256 -160964630</internalNodes>
          <leafValues>
            -5.5317127704620361e-01 3.9515012502670288e-01</leafValues></_>
        <_>
          <internalNodes>
            0 -1 42 794068988 -539214884 1073201119 -1075861121
            -1683178019 -1080502035 -1078748161 732694536</internalNodes>
          <leafValues>
            -5.4863530397415161e-01 3.9665180444717407e-01</leafValues></_>
        <_>
          <internalNodes>
            0 -1 19 403707188 -107 -573284899 -2113539 -1116621620
            -73536524 -340509187 -72280771</internalNodes>
          <leafValues>
            -5.2615362405776978e-01 3.9172536134719849e-01</leafValues></_>
        <_>
          <internalNodes>
            0 -1 40 -405283073 -459128035 -892305253 12740151
            -1332560405 -73735361 -27529537 -352325697</internalNodes>
          <leafValues>
            -5.1109987497329712e-01 4.4091278314590454e-01</leafValues></_></weakClassifiers></_>
    <!-- stage 12 -->
    <_>
      <maxWeakCount>8</maxWeakCount>
      <stageThreshold>-1.0434832572937012e+00</stageThreshold>
      <weakClassifiers>
        <_>
          <internalNodes>
            0 -1 60 -887357441 -15363705 390061055 -3189249 152134117
            -5651541 412308989 -2140811</internalNodes>
          <leafValues>
            -5.0904673337936401e-01 4.3888241052627563e-01</leafValues></_>
        <_>
          <internalNodes>
            0 -1 35 -606797867 -38331275 1577025211 -8701615 1171594751
            2113623423 -45057 1601918779</internalNodes>
          <leafValues>
            -4.2412242293357849e-01 5.3143030405044556e-01</leafValues></_>
        <_>
          <internalNodes>
            0 -1 10 -69861377 -196020747 2147483647 -705300481 -1
            -524289 -1 -4194305</internalNodes>
          <leafValues>
            -4.3783277273178101e-01 4.8604029417037964e-01</leafValues></_>
        <_>
          <internalNodes>
            0 -1 53 -67371057 -81264657 2054946734 -51380225 1884551007
            1450534727 -187433217 1940914175</internalNodes>
          <leafValues>
            -4.1413947939872742e-01 4.9489903450012207e-01</leafValues></_>
        <_>
          <internalNodes>
            0 -1 15 587309857 -11173611 299447711 -541486729 -1467945473
            -8323072 -620705541 -288710262</internalNodes>
          <leafValues>
            -5.8127051591873169e-01 3.5766184329986572e-01</leafValues></_>
        <_>
          <internalNodes>
            0 -1 3 -589873 -5527026 1654845098 -351605216 -28966913
            -83701922 1411695339 -9967877</internalNodes>
          <leafValues>
            -4.0763381123542786e-01 5.0534570217132568e-01</leafValues></_>
        <_>
          <internalNodes>
            0 -1 43 -45613275 17415428 1972485439 -545304145 1027065127
            -1559591381 -393226435 758103355</internalNodes>
          <leafValues>
            -5.1666134595870972e-01 3.9523842930793762e-01</leafValues></_>
        <_>
          <internalNodes>
            0 -1 67 -58716780 -177203895 -1340859529 -12801304 -4662817
            -7632230 -104269126 -1433924008</internalNodes>
          <leafValues>
            -5.1372659206390381e-01 4.1121691465377808e-01</leafValues></_></weakClassifiers></_>
    <!-- stage 13 -->
    <_>
      <maxWeakCount>7</maxWeakCount>
      <stageThreshold>-6.5133708715438843e-01</stageThreshold>
      <weakClassifiers>
        <_>
          <internalNodes>
            0 -1 55 -117448737 -1140736006 -1360351249 8978287
            -721623864 -640557179 -1594228819 50629</internalNodes>
          <leafValues>
            -3.3821734786033630e-01 7.2632551193237305e-01</leafValues></_>
        <_>
          <internalNodes>
            0 -1 4 -1748310793 -36798002 1158677405 -1883209184
            -1931228965 -70575958 -382061665 520093968</internalNodes>
          <leafValues>
            -5.1123118400573730e-01 5.0485444068908691e-01</leafValues></_>
        <_>
          <internalNodes>
            0 -1 5 -737632833 -738132652 1343260945 -1722505063
            -2143252067 -1056931584 -738148423 -102001199</internalNodes>
          <leafValues>
            -6.1204910278320312e-01 3.9414519071578979e-01</leafValues></_>
        <_>
          <internalNodes>
            0 -1 24 -740830241 -267190270 -1073473319 433717252
            -733035829 -532131677 -867149602 1600083271</internalNodes>
          <leafValues>
            -4.9504414200782776e-01 4.7365888953208923e-01</leafValues></_>
        <_>
          <internalNodes>
            0 -1 16 -484902937 -401874908 1565266389 -287002624
            -1450470465 -1174333045 -2103189836 -391462764</internalNodes>
          <leafValues>
            -5.5620902776718140e-01 4.2943248152732849e-01</leafValues></_>
        <_>
          <internalNodes>
            0 -1 70 -644874302 4426274 1110802448 623087906 -1576490878
            1871337986 -532621936 -622606841</internalNodes>
          <leafValues>
            -5.6669837236404419e-01 4.3181276321411133e-01</leafValues></_>
        <_>
          <internalNodes>
            0 -1 29 1782646735 1145051396 -1851600417 -1895628659
            831051900 1128303539 -636923781 794659403</internalNodes>
          <leafValues>
            -5.5877298116683960e-01 4.1351529955863953e-01</leafValues></_></weakClassifiers></_></stages>
  <features>
    <_>
      <rect>
        0 0 2 8</rect></_>
    <_>
      <rect>
        0 5 4 4</rect></_>
    <_>
      <rect>
        0 12 2 1</rect></_>
    <_>
      <rect>
        0 14 3 2</rect></_>
    <_>
      <rect>
        1 0 2 1</rect></_>
    <_>
      <rect>
        1 0 6 4</rect></_>
    <_>
      <rect>
        1 1 3 7</rect></_>
    <_>
      <rect>
        1 4 6 2</rect></_>
    <_>
      <rect>
        1 13 2 1</rect></_>
    <_>
      <rect>
        1 18 2 2</rect></_>
    <_>
      <rect>
        2 0 4 7</rect></_>
    <_>
      <rect>
        2 0 6 4</rect></_>
    <_>
      <rect>
        2 1 7 3</rect></_>
    <_>
      <rect>
        2 3 4 6</rect></_>
    <_>
      <rect>
        3 0 5 2</rect></_>
    <_>
      <rect>
        3 5 7 1</rect></_>
    <_>
      <rect>
        3 12 1 1</rect></_>
    <_>
      <rect>
        3 17 3 2</rect></_>
    <_>
      <rect>
        4 0 3 4</rect></_>
    <_>
      <rect>
        4 2 1 1</rect></_>
    <_>
      <rect>
        4 4 3 2</rect></_>
    <_>
      <rect>
        4 5 3 2</rect></_>
    <_>
      <rect>
        4 6 2 3</rect></_>
    <_>
      <rect>
        4 6 3 3</rect></_>
    <_>
      <rect>
        4 15 2 3</rect></_>
    <_>
      <rect>
        5 0 4 2</rect></_>
    <_>
      <rect>
        5 0 5 2</rect></_>
    <_>
      <rect>
        5 0 6 3</rect></_>
    <_>
      <rect>
        5 0 6 4</rect></_>
    <_>
      <rect>
        5 13 5 2</rect></_>
    <_>
      <rect>
        6 0 1 1</rect></_>
    <_>
      <rect>
        7 0 2 2</rect></_>
    <_>
      <rect>
        7 1 1 1</rect></_>
    <_>
      <rect>
        7 3 3 7</rect></_>
    <_>
      <rect>
        7 5 2 2</rect></_>
    <_>
      <rect>
        7 12 2 2</rect></_>
    <_>
      <rect>
        8 0 1 2</rect></_>
    <_>
      <rect>
        8 0 3 2</rect></_>
    <_>
      <rect>
        8 0 4 1</rect></_>
    <_>
      <rect>
        9 0 1 2</rect></_>
    <_>
      <rect>
        9 2 1 1</rect></_>
    <_>
      <rect>
        9 3 2 2</rect></_>
    <_>
      <rect>
        9 18 2 1</rect></_>
    <_>
      <rect>
        9 18 5 2</rect></_>
    <_>
      <rect>
        10 0 4 7</rect></_>
    <_>
      <rect>
        10 1 3 3</rect></_>
    <_>
      <rect>
        10 11 4 2</rect></_>
    <_>
      <rect>
        11 0 2 2</rect></_>
    <_>
      <rect>
        11 3 3 3</rect></_>
    <_>
      <rect>
        11 4 3 2</rect></_>
    <_>
      <rect>
        11 5 2 2</rect></_>
    <_>
      <rect>
        11 5 3 2</rect></_>
    <_>
      <rect>
        11 6 1 2</rect></_>
    <_>
      <rect>
        11 6 2 2</rect></_>
    <_>
      <rect>
        12 0 1 2</rect></_>
    <_>
      <rect>
        12 10 3 2</rect></_>
    <_>
      <rect>
        12 11 2 2</rect></_>
    <_>
      <rect>
        12 17 3 2</rect></_>
    <_>
      <rect>
        13 0 1 2</rect></_>
    <_>
      <rect>
        14 0 1 1</rect></_>
    <_>
      <rect>
        14 1 1 1</rect></_>
    <_>
      <rect>
        14 2 3 7</rect></_>
    <_>
      <rect>
        14 3 3 6</rect></_>
    <_>
      <rect>
        15 4 3 6</rect></_>
    <_>
      <rect>
        15 18 3 2</rect></_>
    <_>
      <rect>
        17 0 1 1</rect></_>
    <_>
      <rect>
        18 1 2 6</rect></_>
    <_>
      <rect>
        18 2 1 1</rect></_>
    <_>
      <rect>
        18 12 2 1</rect></_>
    <_>
      <rect>
        18 13 2 1</rect></_>
    <_>
      <rect>
        18 18 2 2</rect></_>
    <_>
      <rect>
        21 7 1 3</rect></_></features></cascade>
</opencv_storage>
