<?xml version="1.0"?>
<opencv_storage>
<stage13>
  <maxWeakCount>7</maxWeakCount>
  <stageThreshold>-6.5133708715438843e-01</stageThreshold>
  <weakClassifiers>
    <_>
      <internalNodes>
        0 -1 6697 -117448737 -1140736006 -1360351249 8978287 -721623864
        -640557179 -1594228819 50629</internalNodes>
      <leafValues>
        -3.3821734786033630e-01 7.2632551193237305e-01</leafValues></_>
    <_>
      <internalNodes>
        0 -1 744 -1748310793 -36798002 1158677405 -1883209184
        -1931228965 -70575958 -382061665 520093968</internalNodes>
      <leafValues>
        -5.1123118400573730e-01 5.0485444068908691e-01</leafValues></_>
    <_>
      <internalNodes>
        0 -1 779 -737632833 -738132652 1343260945 -1722505063
        -2143252067 -1056931584 -738148423 -102001199</internalNodes>
      <leafValues>
        -6.1204910278320312e-01 3.9414519071578979e-01</leafValues></_>
    <_>
      <internalNodes>
        0 -1 3153 -740830241 -267190270 -1073473319 433717252 -733035829
        -532131677 -867149602 1600083271</internalNodes>
      <leafValues>
        -4.9504414200782776e-01 4.7365888953208923e-01</leafValues></_>
    <_>
      <internalNodes>
        0 -1 2514 -484902937 -401874908 1565266389 -287002624
        -1450470465 -1174333045 -2103189836 -391462764</internalNodes>
      <leafValues>
        -5.5620902776718140e-01 4.2943248152732849e-01</leafValues></_>
    <_>
      <internalNodes>
        0 -1 8181 -644874302 4426274 1110802448 623087906 -1576490878
        1871337986 -532621936 -622606841</internalNodes>
      <leafValues>
        -5.6669837236404419e-01 4.3181276321411133e-01</leafValues></_>
    <_>
      <internalNodes>
        0 -1 3677 1782646735 1145051396 -1851600417 -1895628659
        831051900 1128303539 -636923781 794659403</internalNodes>
      <leafValues>
        -5.5877298116683960e-01 4.1351529955863953e-01</leafValues></_></weakClassifiers></stage13>
</opencv_storage>
