<?xml version="1.0"?>
<opencv_storage>
<stage7>
  <maxWeakCount>7</maxWeakCount>
  <stageThreshold>-1.5515472888946533e+00</stageThreshold>
  <weakClassifiers>
    <_>
      <internalNodes>
        0 -1 6441 -1 -5 -1 -5 -1 -66 -1048641 -2269</internalNodes>
      <leafValues>
        -4.6544370055198669e-01 7.1046078205108643e-01</leafValues></_>
    <_>
      <internalNodes>
        0 -1 2922 -250481408 -168435265 -217845503 -35673141 -247012353
        -3175957 -246551535 -4353</internalNodes>
      <leafValues>
        -6.9466441869735718e-01 4.1023063659667969e-01</leafValues></_>
    <_>
      <internalNodes>
        0 -1 3305 -2379873 -707690027 -10114881 -573198887 -40779777
        -323946248 -2283329 -152321</internalNodes>
      <leafValues>
        -6.3219684362411499e-01 4.1395193338394165e-01</leafValues></_>
    <_>
      <internalNodes>
        0 -1 6709 -524297 424793591 -1848543749 -1745361153 -8145731
        825401716 -1349531444 215976171</internalNodes>
      <leafValues>
        -4.9987801909446716e-01 5.1108741760253906e-01</leafValues></_>
    <_>
      <internalNodes>
        0 -1 4364 2136275935 -581244481 -444075521 454857695 -158076933
        -1462037 -72352833 -1165301250</internalNodes>
      <leafValues>
        -5.1985108852386475e-01 4.8634839057922363e-01</leafValues></_>
    <_>
      <internalNodes>
        0 -1 7056 -685769765 -1223429838 2133587840 355333577 2142239131
        1931458603 -32770293 185588619</internalNodes>
      <leafValues>
        -5.3916978836059570e-01 4.6305316686630249e-01</leafValues></_>
    <_>
      <internalNodes>
        0 -1 8431 -2209 -68239393 -262411 -285483538 -679479468
        -721945227 -44966144 -253766144</internalNodes>
      <leafValues>
        -4.8114299774169922e-01 5.1765185594558716e-01</leafValues></_></weakClassifiers></stage7>
</opencv_storage>
