<?xml version="1.0"?>
<opencv_storage>
<stage4>
  <maxWeakCount>5</maxWeakCount>
  <stageThreshold>-1.0389195680618286e+00</stageThreshold>
  <weakClassifiers>
    <_>
      <internalNodes>
        0 -1 4801 -1 -67108865 1039628783 -131089 -513 -4997139
        -71303250 -114</internalNodes>
      <leafValues>
        -6.1246675252914429e-01 7.0061153173446655e-01</leafValues></_>
    <_>
      <internalNodes>
        0 -1 5295 -151060508 -135405185 -53938492 -598414418 -637796355
        -708454397 -9573468 -135270518</internalNodes>
      <leafValues>
        -7.3106992244720459e-01 5.1718264818191528e-01</leafValues></_>
    <_>
      <internalNodes>
        0 -1 861 -138018876 -1073 -373044321 -238169377 -710542409
        -39872353 -69207553 -4133</internalNodes>
      <leafValues>
        -7.2946327924728394e-01 4.4191315770149231e-01</leafValues></_>
    <_>
      <internalNodes>
        0 -1 6176 -201365505 -13970110 -72222435 -83246335 50282735
        -24225109 999291615 -3409525</internalNodes>
      <leafValues>
        -6.6408061981201172e-01 5.4491502046585083e-01</leafValues></_>
    <_>
      <internalNodes>
        0 -1 2855 -2362577 859782949 1292753375 -10626625 -273485361
        -1142369910 -549194518 -10417</internalNodes>
      <leafValues>
        -5.3736031055450439e-01 5.2678453922271729e-01</leafValues></_></weakClassifiers></stage4>
</opencv_storage>
