<?xml version="1.0"?>
<opencv_storage>
<stage3>
  <maxWeakCount>4</maxWeakCount>
  <stageThreshold>-5.2600687742233276e-01</stageThreshold>
  <weakClassifiers>
    <_>
      <internalNodes>
        0 -1 6081 -2097153 -134221345 -242885633 -8705 -68420609
        -70532353 -8914313 -36607</internalNodes>
      <leafValues>
        -7.3956042528152466e-01 6.5539908409118652e-01</leafValues></_>
    <_>
      <internalNodes>
        0 -1 1431 -549077505 -36339233 -1218475073 -546561 -311575105
        -20398889 -5334081 -148481</internalNodes>
      <leafValues>
        -6.5555536746978760e-01 6.5562641620635986e-01</leafValues></_>
    <_>
      <internalNodes>
        0 -1 7106 -792658228 -715860005 -101450769 -134221825 -19989778
        -3672145 -338956549 -1</internalNodes>
      <leafValues>
        -8.5050344467163086e-01 4.9060365557670593e-01</leafValues></_>
    <_>
      <internalNodes>
        0 -1 2687 -35651585 1000337567 -577241105 993235354 -138362401
        -1141129843 -623188241 1002437275</internalNodes>
      <leafValues>
        -8.6408150196075439e-01 4.0843054652214050e-01</leafValues></_></weakClassifiers></stage3>
</opencv_storage>
