<?xml version="1.0"?>
<opencv_storage>
<stage10>
  <maxWeakCount>7</maxWeakCount>
  <stageThreshold>-1.7283198833465576e+00</stageThreshold>
  <weakClassifiers>
    <_>
      <internalNodes>
        0 -1 4506 -81 19133191 -238158849 2013263327 1032448175
        1654624911 -2096375091 -134226993</internalNodes>
      <leafValues>
        -5.7034629583358765e-01 4.9000465869903564e-01</leafValues></_>
    <_>
      <internalNodes>
        0 -1 15 -932512416 -1025511413 -721169065 -607686505 -161096944
        -7108526 -77596465 -1025</internalNodes>
      <leafValues>
        -7.5826025009155273e-01 3.0452620983123779e-01</leafValues></_>
    <_>
      <internalNodes>
        0 -1 4808 -145500299 -111701677 330256893 -4206145 -607147587
        -99897665 766116080 -158476</internalNodes>
      <leafValues>
        -5.9305280447006226e-01 3.9801791310310364e-01</leafValues></_>
    <_>
      <internalNodes>
        0 -1 6709 -227027969 -1181614857 -577512993 268405503
        -1147151107 291813473 -881162036 207587551</internalNodes>
      <leafValues>
        -5.3476679325103760e-01 4.3797338008880615e-01</leafValues></_>
    <_>
      <internalNodes>
        0 -1 8421 -262155 -1174618092 1636554101 -906215100 -542376587
        -1456232303 -1361058475 -274732203</internalNodes>
      <leafValues>
        -5.0521135330200195e-01 4.2677596211433411e-01</leafValues></_>
    <_>
      <internalNodes>
        0 -1 4454 -10485761 -536870913 -967522752 -1000550401 -4129
        -536870913 -539504865 -538982577</internalNodes>
      <leafValues>
        -4.1188111901283264e-01 5.3700846433639526e-01</leafValues></_>
    <_>
      <internalNodes>
        0 -1 1348 -218708786 -51646234 1750266586 -256871374 1076609092
        -339524793 -657597697 -25430017</internalNodes>
      <leafValues>
        -4.7793868184089661e-01 4.6133044362068176e-01</leafValues></_></weakClassifiers></stage10>
</opencv_storage>
