<?xml version="1.0"?>
<opencv_storage>
<stage4>
  <maxWeakCount>5</maxWeakCount>
  <stageThreshold>-1.3066555261611938e+00</stageThreshold>
  <weakClassifiers>
    <_>
      <internalNodes>
        0 -1 5362 -4438 -136323169 -924988798 -35655197 -36832257
        -25038357 -68420625 -1050625</internalNodes>
      <leafValues>
        -7.1977281570434570e-01 6.1869335174560547e-01</leafValues></_>
    <_>
      <internalNodes>
        0 -1 1480 -572543041 -170794763 970949307 -537549825 -44519489
        -543892028 -33834053 -17409</internalNodes>
      <leafValues>
        -7.1470230817794800e-01 5.3777754306793213e-01</leafValues></_>
    <_>
      <internalNodes>
        0 -1 6081 -3073 -800771 -342239321 -572523521 -624033857
        -537921089 -788639 -538979067</internalNodes>
      <leafValues>
        -6.8823480606079102e-01 4.9770355224609375e-01</leafValues></_>
    <_>
      <internalNodes>
        0 -1 301 -146735164 -146482227 -1713680186 -33556997 -111869953
        -73015573 -283906305 -262145</internalNodes>
      <leafValues>
        -7.9820191860198975e-01 4.3814069032669067e-01</leafValues></_>
    <_>
      <internalNodes>
        0 -1 7464 -17367356 -1072375224 -263736321 -246558245 -264306
        -73428854 -605291813 -67108881</internalNodes>
      <leafValues>
        -8.0802470445632935e-01 3.8131242990493774e-01</leafValues></_></weakClassifiers></stage4>
</opencv_storage>
