<?xml version="1.0"?>
<opencv_storage>
<stage11>
  <maxWeakCount>7</maxWeakCount>
  <stageThreshold>-1.0329858064651489e+00</stageThreshold>
  <weakClassifiers>
    <_>
      <internalNodes>
        0 -1 2057 -1537 -7721 1364328413 -552233012 -503578701
        -1783398221 -17 -4466</internalNodes>
      <leafValues>
        -4.6015179157257080e-01 5.1295608282089233e-01</leafValues></_>
    <_>
      <internalNodes>
        0 -1 2922 -248384256 -637670933 -570339071 -36714821 -1188174929
        -71314801 -1553346429 -1070421</internalNodes>
      <leafValues>
        -6.8878924846649170e-01 3.4238171577453613e-01</leafValues></_>
    <_>
      <internalNodes>
        0 -1 6225 -486545681 -612039231 -1332686827 -1189767151
        1087324411 -272737335 -259862785 -70526017</internalNodes>
      <leafValues>
        -5.6016349792480469e-01 3.9719709753990173e-01</leafValues></_>
    <_>
      <internalNodes>
        0 -1 8155 -2367489 -778583649 -766076966 -220007430 -875302540
        -23072370 -856952256 -160964630</internalNodes>
      <leafValues>
        -5.5317127704620361e-01 3.9515012502670288e-01</leafValues></_>
    <_>
      <internalNodes>
        0 -1 5681 794068988 -539214884 1073201119 -1075861121
        -1683178019 -1080502035 -1078748161 732694536</internalNodes>
      <leafValues>
        -5.4863530397415161e-01 3.9665180444717407e-01</leafValues></_>
    <_>
      <internalNodes>
        0 -1 2758 403707188 -107 -573284899 -2113539 -1116621620
        -73536524 -340509187 -72280771</internalNodes>
      <leafValues>
        -5.2615362405776978e-01 3.9172536134719849e-01</leafValues></_>
    <_>
      <internalNodes>
        0 -1 5319 -405283073 -459128035 -892305253 12740151 -1332560405
        -73735361 -27529537 -352325697</internalNodes>
      <leafValues>
        -5.1109987497329712e-01 4.4091278314590454e-01</leafValues></_></weakClassifiers></stage11>
</opencv_storage>
