<?xml version="1.0"?>
<opencv_storage>
<stage12>
  <maxWeakCount>8</maxWeakCount>
  <stageThreshold>-1.0434832572937012e+00</stageThreshold>
  <weakClassifiers>
    <_>
      <internalNodes>
        0 -1 7108 -887357441 -15363705 390061055 -3189249 152134117
        -5651541 412308989 -2140811</internalNodes>
      <leafValues>
        -5.0904673337936401e-01 4.3888241052627563e-01</leafValues></_>
    <_>
      <internalNodes>
        0 -1 4679 -606797867 -38331275 1577025211 -8701615 1171594751
        2113623423 -45057 1601918779</internalNodes>
      <leafValues>
        -4.2412242293357849e-01 5.3143030405044556e-01</leafValues></_>
    <_>
      <internalNodes>
        0 -1 1410 -69861377 -196020747 2147483647 -705300481 -1 -524289
        -1 -4194305</internalNodes>
      <leafValues>
        -4.3783277273178101e-01 4.8604029417037964e-01</leafValues></_>
    <_>
      <internalNodes>
        0 -1 6243 -67371057 -81264657 2054946734 -51380225 1884551007
        1450534727 -187433217 1940914175</internalNodes>
      <leafValues>
        -4.1413947939872742e-01 4.9489903450012207e-01</leafValues></_>
    <_>
      <internalNodes>
        0 -1 2305 587309857 -11173611 299447711 -541486729 -1467945473
        -8323072 -620705541 -288710262</internalNodes>
      <leafValues>
        -5.8127051591873169e-01 3.5766184329986572e-01</leafValues></_>
    <_>
      <internalNodes>
        0 -1 623 -589873 -5527026 1654845098 -351605216 -28966913
        -83701922 1411695339 -9967877</internalNodes>
      <leafValues>
        -4.0763381123542786e-01 5.0534570217132568e-01</leafValues></_>
    <_>
      <internalNodes>
        0 -1 5688 -45613275 17415428 1972485439 -545304145 1027065127
        -1559591381 -393226435 758103355</internalNodes>
      <leafValues>
        -5.1666134595870972e-01 3.9523842930793762e-01</leafValues></_>
    <_>
      <internalNodes>
        0 -1 8034 -58716780 -177203895 -1340859529 -12801304 -4662817
        -7632230 -104269126 -1433924008</internalNodes>
      <leafValues>
        -5.1372659206390381e-01 4.1121691465377808e-01</leafValues></_></weakClassifiers></stage12>
</opencv_storage>
