<?xml version="1.0"?>
<opencv_storage>
<stage5>
  <maxWeakCount>5</maxWeakCount>
  <stageThreshold>-9.1181772947311401e-01</stageThreshold>
  <weakClassifiers>
    <_>
      <internalNodes>
        0 -1 5245 -1 -1 -269549569 -33558673 -268435457 -286265345
        -285217025 -385955089</internalNodes>
      <leafValues>
        -6.2667351961135864e-01 6.3097608089447021e-01</leafValues></_>
    <_>
      <internalNodes>
        0 -1 6180 -252182529 -145014673 -764952445 -245907325 1106112
        1345710695 1075966895 1970798575</internalNodes>
      <leafValues>
        -6.1502796411514282e-01 5.7852888107299805e-01</leafValues></_>
    <_>
      <internalNodes>
        0 -1 701 -218111762 -3159314 -1065197406 -152049462 1124026055
        -642039221 -56376066 -47905</internalNodes>
      <leafValues>
        -5.6850153207778931e-01 5.4888778924942017e-01</leafValues></_>
    <_>
      <internalNodes>
        0 -1 1422 -581580881 -183173675 -584111478 -579493137 -171917377
        -770658190 -44847189 -2118737</internalNodes>
      <leafValues>
        -7.3505252599716187e-01 4.1653344035148621e-01</leafValues></_>
    <_>
      <internalNodes>
        0 -1 1230 -536871937 -24186490 -1750499874 -286349176 -391388695
        -407650134 -788664092 -1546</internalNodes>
      <leafValues>
        -5.7912981510162354e-01 5.1604849100112915e-01</leafValues></_></weakClassifiers></stage5>
</opencv_storage>
