<?xml version="1.0"?>
<opencv_storage>
<stage9>
  <maxWeakCount>8</maxWeakCount>
  <stageThreshold>-1.0982044935226440e+00</stageThreshold>
  <weakClassifiers>
    <_>
      <internalNodes>
        0 -1 3245 -237505025 -774680107 -73663028 -70132800 -256787469
        -739012173 -210504721 -6162</internalNodes>
      <leafValues>
        -6.5932947397232056e-01 4.1378614306449890e-01</leafValues></_>
    <_>
      <internalNodes>
        0 -1 6492 -657391617 -31981 1937965479 -1279066111 -254738689
        -67247445 -210243653 -1137</internalNodes>
      <leafValues>
        -5.7746589183807373e-01 4.7071689367294312e-01</leafValues></_>
    <_>
      <internalNodes>
        0 -1 570 -1312769 -1048577 -14615638 -7674162 -27787265
        -21823489 -553586934 -150732817</internalNodes>
      <leafValues>
        -4.2267060279846191e-01 5.3369230031967163e-01</leafValues></_>
    <_>
      <internalNodes>
        0 -1 8 -10158081 -102568706 -1075888131 -276525880 802996159
        -2674689 2146950143 -15399611</internalNodes>
      <leafValues>
        -3.9198249578475952e-01 5.6398320198059082e-01</leafValues></_>
    <_>
      <internalNodes>
        0 -1 6605 -34085297 1089990143 -432566482 -184549377 1450401794
        24541046 -166465781 -145227777</internalNodes>
      <leafValues>
        -4.5989161729812622e-01 4.9036294221878052e-01</leafValues></_>
    <_>
      <internalNodes>
        0 -1 5681 105913084 -539742052 1477549055 -1107817313 -108414020
        -1076307751 -1612660801 732432392</internalNodes>
      <leafValues>
        -5.8546155691146851e-01 3.9084586501121521e-01</leafValues></_>
    <_>
      <internalNodes>
        0 -1 8181 -8389326 1243869045 -67968224 -743179086 -205656142
        -747438093 -682101568 -67109121</internalNodes>
      <leafValues>
        -4.4132700562477112e-01 5.3583091497421265e-01</leafValues></_>
    <_>
      <internalNodes>
        0 -1 2129 -1375698544 -134228491 -537069185 -67174402
        -1079984707 -81995 -1612857863 -53879</internalNodes>
      <leafValues>
        -4.4300079345703125e-01 5.1137298345565796e-01</leafValues></_></weakClassifiers></stage9>
</opencv_storage>
