<?xml version="1.0"?>
<opencv_storage>
<stage3>
  <maxWeakCount>5</maxWeakCount>
  <stageThreshold>-6.6057962179183960e-01</stageThreshold>
  <weakClassifiers>
    <_>
      <internalNodes>
        0 -1 465704 -103031329 -784231333 1124629459 -321465585
        -394153833 -80989949 -645140237 -1427453189</internalNodes>
      <leafValues>
        -7.1036207675933838e-01 7.1214020252227783e-01</leafValues></_>
    <_>
      <internalNodes>
        0 -1 527731 -95693484 -100945019 67326233 -174390493 1359579221
        1343805600 -935212972 -1312101</internalNodes>
      <leafValues>
        -7.0123332738876343e-01 6.4241534471511841e-01</leafValues></_>
    <_>
      <internalNodes>
        0 -1 485697 1632981247 -4764915 -1841079873 -752287591
        1125188407 476584103 -159043841 -34880085</internalNodes>
      <leafValues>
        -6.1440783739089966e-01 7.1644842624664307e-01</leafValues></_>
    <_>
      <internalNodes>
        0 -1 513725 -557847121 -616784907 -1107886085 624557775
        -1516264305 677838586 -2051019605 36402367</internalNodes>
      <leafValues>
        -6.3346427679061890e-01 6.7103266716003418e-01</leafValues></_>
    <_>
      <internalNodes>
        0 -1 326242 -680528129 -1908415745 -16846850 -1032874769
        -2297857 117407231 1610609917 -838863009</internalNodes>
      <leafValues>
        -5.9132415056228638e-01 6.9439095258712769e-01</leafValues></_></weakClassifiers></stage3>
</opencv_storage>
